digraph Tree {
node [shape=box] ;
0 [label="X[2] <= 17.5\ngini = 0.434\nsamples = 72446\nvalue = [49338, 23108]"] ;
1 [label="X[0] <= 651.0\ngini = 0.109\nsamples = 36723\nvalue = [34606, 2117]"] ;
0 -> 1 [labeldistance=2.5, labelangle=45, headlabel="True"] ;
2 [label="X[2] <= 6.5\ngini = 0.406\nsamples = 5525\nvalue = [3960, 1565]"] ;
1 -> 2 ;
3 [label="X[2] <= 2.5\ngini = 0.165\nsamples = 3590\nvalue = [3264, 326]"] ;
2 -> 3 ;
4 [label="X[0] <= 23.5\ngini = 0.057\nsamples = 2475\nvalue = [2402, 73]"] ;
3 -> 4 ;
5 [label="gini = 0.351\nsamples = 194\nvalue = [150, 44]"] ;
4 -> 5 ;
6 [label="gini = 0.025\nsamples = 2281\nvalue = [2252, 29]"] ;
4 -> 6 ;
7 [label="X[0] <= 177.5\ngini = 0.351\nsamples = 1115\nvalue = [862, 253]"] ;
3 -> 7 ;
8 [label="gini = 0.499\nsamples = 312\nvalue = [149, 163]"] ;
7 -> 8 ;
9 [label="gini = 0.199\nsamples = 803\nvalue = [713, 90]"] ;
7 -> 9 ;
10 [label="X[2] <= 9.5\ngini = 0.461\nsamples = 1935\nvalue = [696, 1239]"] ;
2 -> 10 ;
11 [label="X[0] <= 269.0\ngini = 0.499\nsamples = 597\nvalue = [314, 283]"] ;
10 -> 11 ;
12 [label="gini = 0.407\nsamples = 222\nvalue = [63, 159]"] ;
11 -> 12 ;
13 [label="gini = 0.443\nsamples = 375\nvalue = [251, 124]"] ;
11 -> 13 ;
14 [label="X[0] <= 355.0\ngini = 0.408\nsamples = 1338\nvalue = [382, 956]"] ;
10 -> 14 ;
15 [label="gini = 0.302\nsamples = 609\nvalue = [113, 496]"] ;
14 -> 15 ;
16 [label="gini = 0.466\nsamples = 729\nvalue = [269, 460]"] ;
14 -> 16 ;
17 [label="X[2] <= 10.5\ngini = 0.035\nsamples = 31198\nvalue = [30646, 552]"] ;
1 -> 17 ;
18 [label="X[2] <= 8.5\ngini = 0.009\nsamples = 26916\nvalue = [26796, 120]"] ;
17 -> 18 ;
19 [label="X[2] <= 4.5\ngini = 0.005\nsamples = 25335\nvalue = [25273, 62]"] ;
18 -> 19 ;
20 [label="gini = 0.001\nsamples = 20406\nvalue = [20398, 8]"] ;
19 -> 20 ;
21 [label="gini = 0.022\nsamples = 4929\nvalue = [4875, 54]"] ;
19 -> 21 ;
22 [label="X[0] <= 1992.5\ngini = 0.071\nsamples = 1581\nvalue = [1523, 58]"] ;
18 -> 22 ;
23 [label="gini = 0.246\nsamples = 327\nvalue = [280, 47]"] ;
22 -> 23 ;
24 [label="gini = 0.017\nsamples = 1254\nvalue = [1243, 11]"] ;
22 -> 24 ;
25 [label="X[0] <= 1715.475\ngini = 0.181\nsamples = 4282\nvalue = [3850, 432]"] ;
17 -> 25 ;
26 [label="X[0] <= 1237.0\ngini = 0.452\nsamples = 973\nvalue = [637, 336]"] ;
25 -> 26 ;
27 [label="gini = 0.479\nsamples = 685\nvalue = [412, 273]"] ;
26 -> 27 ;
28 [label="gini = 0.342\nsamples = 288\nvalue = [225, 63]"] ;
26 -> 28 ;
29 [label="X[0] <= 3525.0\ngini = 0.056\nsamples = 3309\nvalue = [3213, 96]"] ;
25 -> 29 ;
30 [label="gini = 0.159\nsamples = 918\nvalue = [838, 80]"] ;
29 -> 30 ;
31 [label="gini = 0.013\nsamples = 2391\nvalue = [2375, 16]"] ;
29 -> 31 ;
32 [label="X[2] <= 89.5\ngini = 0.485\nsamples = 35723\nvalue = [14732, 20991]"] ;
0 -> 32 [labeldistance=2.5, labelangle=-45, headlabel="False"] ;
33 [label="X[0] <= 4127.0\ngini = 0.5\nsamples = 22034\nvalue = [11322, 10712]"] ;
32 -> 33 ;
34 [label="X[0] <= 1669.0\ngini = 0.433\nsamples = 12798\nvalue = [4056, 8742]"] ;
33 -> 34 ;
35 [label="X[2] <= 29.5\ngini = 0.304\nsamples = 5918\nvalue = [1108, 4810]"] ;
34 -> 35 ;
36 [label="gini = 0.395\nsamples = 2807\nvalue = [761, 2046]"] ;
35 -> 36 ;
37 [label="gini = 0.198\nsamples = 3111\nvalue = [347, 2764]"] ;
35 -> 37 ;
38 [label="X[2] <= 37.5\ngini = 0.49\nsamples = 6880\nvalue = [2948, 3932]"] ;
34 -> 38 ;
39 [label="gini = 0.456\nsamples = 2473\nvalue = [1604, 869]"] ;
38 -> 39 ;
40 [label="gini = 0.424\nsamples = 4407\nvalue = [1344, 3063]"] ;
38 -> 40 ;
41 [label="X[2] <= 48.5\ngini = 0.336\nsamples = 9236\nvalue = [7266, 1970]"] ;
33 -> 41 ;
42 [label="X[0] <= 6225.0\ngini = 0.16\nsamples = 4926\nvalue = [4495, 431]"] ;
41 -> 42 ;
43 [label="gini = 0.313\nsamples = 1486\nvalue = [1197, 289]"] ;
42 -> 43 ;
44 [label="gini = 0.079\nsamples = 3440\nvalue = [3298, 142]"] ;
42 -> 44 ;
45 [label="X[0] <= 10241.0\ngini = 0.459\nsamples = 4310\nvalue = [2771, 1539]"] ;
41 -> 45 ;
46 [label="gini = 0.499\nsamples = 2907\nvalue = [1529, 1378]"] ;
45 -> 46 ;
47 [label="gini = 0.203\nsamples = 1403\nvalue = [1242, 161]"] ;
45 -> 47 ;
48 [label="X[0] <= 7000.5\ngini = 0.374\nsamples = 13689\nvalue = [3410, 10279]"] ;
32 -> 48 ;
49 [label="X[2] <= 153.5\ngini = 0.168\nsamples = 4734\nvalue = [438, 4296]"] ;
48 -> 49 ;
50 [label="X[0] <= 4422.0\ngini = 0.236\nsamples = 2752\nvalue = [377, 2375]"] ;
49 -> 50 ;
51 [label="gini = 0.127\nsamples = 1355\nvalue = [92, 1263]"] ;
50 -> 51 ;
52 [label="gini = 0.325\nsamples = 1397\nvalue = [285, 1112]"] ;
50 -> 52 ;
53 [label="X[2] <= 218.5\ngini = 0.06\nsamples = 1982\nvalue = [61, 1921]"] ;
49 -> 53 ;
54 [label="gini = 0.128\nsamples = 759\nvalue = [52, 707]"] ;
53 -> 54 ;
55 [label="gini = 0.015\nsamples = 1223\nvalue = [9, 1214]"] ;
53 -> 55 ;
56 [label="X[2] <= 236.5\ngini = 0.443\nsamples = 8955\nvalue = [2972, 5983]"] ;
48 -> 56 ;
57 [label="X[0] <= 22250.0\ngini = 0.499\nsamples = 4487\nvalue = [2169, 2318]"] ;
56 -> 57 ;
58 [label="gini = 0.478\nsamples = 3400\nvalue = [1342, 2058]"] ;
57 -> 58 ;
59 [label="gini = 0.364\nsamples = 1087\nvalue = [827, 260]"] ;
57 -> 59 ;
60 [label="X[0] <= 44100.0\ngini = 0.295\nsamples = 4468\nvalue = [803, 3665]"] ;
56 -> 60 ;
61 [label="gini = 0.209\nsamples = 3253\nvalue = [386, 2867]"] ;
60 -> 61 ;
62 [label="gini = 0.451\nsamples = 1215\nvalue = [417, 798]"] ;
60 -> 62 ;
}